{
  "input_nodes": 4,
  "hidden_nodes": 6,
  "output_nodes": 1,
  "learning_rate": 0.05,
  "ih_weights": {
    "mathjs": "DenseMatrix",
    "data": [
      [-0.4632416424334447, -0.37668804939837397, -0.2090217040310507, 0.47900976953060637],
      [-0.8989799427776823, 0.8337686909608082, 0.023907517409536894, 0.48812389093693787],
      [0.265329266055065, 0.3960639659733043, -0.4012877047975203, -0.1946798330012629],
      [-0.830667199470466, -0.43041199975251665, -0.8273147834758823, 0.276389119747682],
      [-0.7719100338566043, -0.013206541429639174, -0.4831068205365172, 0.2059613822288875],
      [0.6456406217231603, 0.14861580355990078, 0.06907887147916014, -0.7171508670792326]
    ],
    "size": [6, 4]
  },
  "ho_weights": {
    "mathjs": "DenseMatrix",
    "data": [
      [
        -0.8375516606875966, -0.7115006259885868, 0.6164093005970801, 0.8652315183587533,
        -0.9124569488445262, 0.7264488278569972
      ]
    ],
    "size": [1, 6]
  },
  "bias_h": {
    "mathjs": "DenseMatrix",
    "data": [
      [-0.8866310480136939],
      [0.16207057866373642],
      [0.3710206050953162],
      [0.34611477661474055],
      [-0.4746162294791185],
      [-0.1631063181645085]
    ],
    "size": [6, 1]
  },
  "bias_o": {
    "mathjs": "DenseMatrix",
    "data": [[-0.39130535182921333]],
    "size": [1, 1]
  }
}
